digraph Tree {
node [shape=box, style="filled, rounded", color="black", fontname=helvetica] ;
edge [fontname=helvetica] ;
0 [label=<z &le; 1797.5<br/>gini = 0.755<br/>samples = 1442382<br/>value = [456115, 35841, 162518, 268104, 38544, 35954, 445306]<br/>class = Computer>, fillcolor="#fffefd"] ;
1 [label=<y &le; 2314.5<br/>gini = 0.372<br/>samples = 92272<br/>value = [72127, 5516, 2653, 10315, 446, 103, 1112]<br/>class = Computer>, fillcolor="#eba06a"] ;
0 -> 1 [labeldistance=2.5, labelangle=45, headlabel="True"] ;
2 [label=<x &le; 1751.5<br/>gini = 0.192<br/>samples = 79287<br/>value = [71053, 4951, 674, 1703, 58, 57, 791]<br/>class = Computer>, fillcolor="#e88f4f"] ;
1 -> 2 ;
3 [label=<z &le; 1525.0<br/>gini = 0.724<br/>samples = 994<br/>value = [119, 1, 268, 400, 46, 2, 158]<br/>class = Walking>, fillcolor="#dbfafa"] ;
2 -> 3 ;
4 [label=<gini = 0.0<br/>samples = 28<br/>value = [28, 0, 0, 0, 0, 0, 0]<br/>class = Computer>, fillcolor="#e58139"] ;
3 -> 4 ;
5 [label=<x &le; 1728.5<br/>gini = 0.714<br/>samples = 966<br/>value = [91, 1, 268, 400, 46, 2, 158]<br/>class = Walking>, fillcolor="#dafafa"] ;
3 -> 5 ;
6 [label=<z &le; 1771.5<br/>gini = 0.649<br/>samples = 688<br/>value = [23, 1, 218, 333, 35, 0, 78]<br/>class = Walking>, fillcolor="#cff9f8"] ;
5 -> 6 ;
7 [label=<y &le; 2132.0<br/>gini = 0.669<br/>samples = 358<br/>value = [17, 0, 141, 143, 18, 0, 39]<br/>class = Walking>, fillcolor="#fdffff"] ;
6 -> 7 ;
8 [label=<gini = 0.444<br/>samples = 21<br/>value = [4, 0, 0, 15, 0, 0, 2]<br/>class = Walking>, fillcolor="#7feeec"] ;
7 -> 8 ;
9 [label=<gini = 0.664<br/>samples = 337<br/>value = [13, 0, 141, 128, 18, 0, 37]<br/>class = Standing>, fillcolor="#f3fdf4"] ;
7 -> 9 ;
10 [label=<y &le; 2194.0<br/>gini = 0.597<br/>samples = 330<br/>value = [6, 1, 77, 190, 17, 0, 39]<br/>class = Walking>, fillcolor="#a7f3f2"] ;
6 -> 10 ;
11 [label=<gini = 0.481<br/>samples = 90<br/>value = [1, 0, 10, 63, 9, 0, 7]<br/>class = Walking>, fillcolor="#7ceeec"] ;
10 -> 11 ;
12 [label=<gini = 0.623<br/>samples = 240<br/>value = [5, 1, 67, 127, 8, 0, 32]<br/>class = Walking>, fillcolor="#baf6f5"] ;
10 -> 12 ;
13 [label=<y &le; 2256.5<br/>gini = 0.765<br/>samples = 278<br/>value = [68, 0, 50, 67, 11, 2, 80]<br/>class = Standing + talking>, fillcolor="#fef4f8"] ;
5 -> 13 ;
14 [label=<y &le; 2168.0<br/>gini = 0.726<br/>samples = 180<br/>value = [68, 0, 19, 43, 5, 0, 45]<br/>class = Computer>, fillcolor="#fbeadd"] ;
13 -> 14 ;
15 [label=<gini = 0.658<br/>samples = 35<br/>value = [1, 0, 8, 17, 1, 0, 8]<br/>class = Walking>, fillcolor="#bdf6f5"] ;
14 -> 15 ;
16 [label=<gini = 0.683<br/>samples = 145<br/>value = [67, 0, 11, 26, 4, 0, 37]<br/>class = Computer>, fillcolor="#f8dcc8"] ;
14 -> 16 ;
17 [label=<y &le; 2291.5<br/>gini = 0.708<br/>samples = 98<br/>value = [0, 0, 31, 24, 6, 2, 35]<br/>class = Standing + talking>, fillcolor="#fdf3f8"] ;
13 -> 17 ;
18 [label=<gini = 0.7<br/>samples = 61<br/>value = [0, 0, 11, 17, 5, 2, 26]<br/>class = Standing + talking>, fillcolor="#fad6e6"] ;
17 -> 18 ;
19 [label=<gini = 0.612<br/>samples = 37<br/>value = [0, 0, 20, 7, 1, 0, 9]<br/>class = Standing>, fillcolor="#b1f5b9"] ;
17 -> 19 ;
20 [label=<x &le; 1907.5<br/>gini = 0.175<br/>samples = 78293<br/>value = [70934, 4950, 406, 1303, 12, 55, 633]<br/>class = Computer>, fillcolor="#e88e4d"] ;
2 -> 20 ;
21 [label=<y &le; 2226.5<br/>gini = 0.461<br/>samples = 4774<br/>value = [3423, 2, 346, 382, 10, 55, 556]<br/>class = Computer>, fillcolor="#eda978"] ;
20 -> 21 ;
22 [label=<z &le; 1774.5<br/>gini = 0.631<br/>samples = 600<br/>value = [166, 1, 69, 36, 2, 11, 315]<br/>class = Standing + talking>, fillcolor="#f6bbd5"] ;
21 -> 22 ;
23 [label=<x &le; 1845.5<br/>gini = 0.643<br/>samples = 282<br/>value = [136, 1, 49, 10, 0, 0, 86]<br/>class = Computer>, fillcolor="#f8dfcc"] ;
22 -> 23 ;
24 [label=<gini = 0.678<br/>samples = 224<br/>value = [88, 1, 49, 9, 0, 0, 77]<br/>class = Computer>, fillcolor="#fdf6f0"] ;
23 -> 24 ;
25 [label=<gini = 0.291<br/>samples = 58<br/>value = [48, 0, 0, 1, 0, 0, 9]<br/>class = Computer>, fillcolor="#ea9b61"] ;
23 -> 25 ;
26 [label=<x &le; 1783.5<br/>gini = 0.461<br/>samples = 318<br/>value = [30, 0, 20, 26, 2, 11, 229]<br/>class = Standing + talking>, fillcolor="#ed76ab"] ;
22 -> 26 ;
27 [label=<gini = 0.681<br/>samples = 85<br/>value = [21, 0, 11, 12, 0, 1, 40]<br/>class = Standing + talking>, fillcolor="#f7c4db"] ;
26 -> 27 ;
28 [label=<gini = 0.334<br/>samples = 233<br/>value = [9, 0, 9, 14, 2, 10, 189]<br/>class = Standing + talking>, fillcolor="#ea619e"] ;
26 -> 28 ;
29 [label=<y &le; 2270.5<br/>gini = 0.376<br/>samples = 4174<br/>value = [3257, 1, 277, 346, 8, 44, 241]<br/>class = Computer>, fillcolor="#eb9f68"] ;
21 -> 29 ;
30 [label=<z &le; 1762.5<br/>gini = 0.253<br/>samples = 3636<br/>value = [3130, 1, 184, 105, 5, 36, 175]<br/>class = Computer>, fillcolor="#e99356"] ;
29 -> 30 ;
31 [label=<gini = 0.625<br/>samples = 197<br/>value = [55, 1, 104, 13, 0, 1, 23]<br/>class = Standing>, fillcolor="#bbf6c2"] ;
30 -> 31 ;
32 [label=<gini = 0.197<br/>samples = 3439<br/>value = [3075, 0, 80, 92, 5, 35, 152]<br/>class = Computer>, fillcolor="#e88f4f"] ;
30 -> 32 ;
33 [label=<x &le; 1823.5<br/>gini = 0.698<br/>samples = 538<br/>value = [127, 0, 93, 241, 3, 8, 66]<br/>class = Walking>, fillcolor="#c8f8f7"] ;
29 -> 33 ;
34 [label=<gini = 0.758<br/>samples = 304<br/>value = [72, 0, 74, 94, 3, 8, 53]<br/>class = Walking>, fillcolor="#eefdfc"] ;
33 -> 34 ;
35 [label=<gini = 0.54<br/>samples = 234<br/>value = [55, 0, 19, 147, 0, 0, 13]<br/>class = Walking>, fillcolor="#99f2f0"] ;
33 -> 35 ;
36 [label=<z &le; 1720.5<br/>gini = 0.152<br/>samples = 73519<br/>value = [67511, 4948, 60, 921, 2, 0, 77]<br/>class = Computer>, fillcolor="#e78c4a"] ;
20 -> 36 ;
37 [label=<y &le; 2172.5<br/>gini = 0.315<br/>samples = 10278<br/>value = [8287, 1912, 3, 76, 0, 0, 0]<br/>class = Computer>, fillcolor="#eb9f68"] ;
36 -> 37 ;
38 [label=<x &le; 2158.0<br/>gini = 0.006<br/>samples = 5067<br/>value = [5053, 5, 0, 9, 0, 0, 0]<br/>class = Computer>, fillcolor="#e5813a"] ;
37 -> 38 ;
39 [label=<gini = 0.003<br/>samples = 5015<br/>value = [5007, 4, 0, 4, 0, 0, 0]<br/>class = Computer>, fillcolor="#e58139"] ;
38 -> 39 ;
40 [label=<gini = 0.208<br/>samples = 52<br/>value = [46, 1, 0, 5, 0, 0, 0]<br/>class = Computer>, fillcolor="#e89152"] ;
38 -> 40 ;
41 [label=<x &le; 1974.5<br/>gini = 0.481<br/>samples = 5211<br/>value = [3234, 1907, 3, 67, 0, 0, 0]<br/>class = Computer>, fillcolor="#f5ccaf"] ;
37 -> 41 ;
42 [label=<gini = 0.489<br/>samples = 2346<br/>value = [987, 1356, 2, 1, 0, 0, 0]<br/>class = Moving>, fillcolor="#ebf8c9"] ;
41 -> 42 ;
43 [label=<gini = 0.347<br/>samples = 2865<br/>value = [2247, 551, 1, 66, 0, 0, 0]<br/>class = Computer>, fillcolor="#eca36e"] ;
41 -> 43 ;
44 [label=<y &le; 2277.5<br/>gini = 0.121<br/>samples = 63241<br/>value = [59224, 3036, 57, 845, 2, 0, 77]<br/>class = Computer>, fillcolor="#e78946"] ;
36 -> 44 ;
45 [label=<z &le; 1787.5<br/>gini = 0.047<br/>samples = 37522<br/>value = [36627, 431, 1, 388, 0, 0, 75]<br/>class = Computer>, fillcolor="#e6843e"] ;
44 -> 45 ;
46 [label=<gini = 0.041<br/>samples = 37053<br/>value = [36276, 415, 1, 290, 0, 0, 71]<br/>class = Computer>, fillcolor="#e6843d"] ;
45 -> 46 ;
47 [label=<gini = 0.395<br/>samples = 469<br/>value = [351, 16, 0, 98, 0, 0, 4]<br/>class = Computer>, fillcolor="#eda978"] ;
45 -> 47 ;
48 [label=<x &le; 1970.5<br/>gini = 0.217<br/>samples = 25719<br/>value = [22597, 2605, 56, 457, 2, 0, 2]<br/>class = Computer>, fillcolor="#e99254"] ;
44 -> 48 ;
49 [label=<gini = 0.503<br/>samples = 882<br/>value = [459, 419, 0, 4, 0, 0, 0]<br/>class = Computer>, fillcolor="#fdf4ee"] ;
48 -> 49 ;
50 [label=<gini = 0.197<br/>samples = 24837<br/>value = [22138, 2186, 56, 453, 2, 0, 2]<br/>class = Computer>, fillcolor="#e89051"] ;
48 -> 50 ;
51 [label=<y &le; 2344.5<br/>gini = 0.527<br/>samples = 12985<br/>value = [1074, 565, 1979, 8612, 388, 46, 321]<br/>class = Walking>, fillcolor="#88efee"] ;
1 -> 51 ;
52 [label=<x &le; 2093.5<br/>gini = 0.704<br/>samples = 3453<br/>value = [636, 281, 1099, 1356, 25, 0, 56]<br/>class = Walking>, fillcolor="#e9fcfc"] ;
51 -> 52 ;
53 [label=<x &le; 2049.5<br/>gini = 0.628<br/>samples = 2789<br/>value = [140, 198, 1080, 1291, 24, 0, 56]<br/>class = Walking>, fillcolor="#e7fcfb"] ;
52 -> 53 ;
54 [label=<x &le; 1803.5<br/>gini = 0.557<br/>samples = 1719<br/>value = [97, 85, 394, 1064, 23, 0, 56]<br/>class = Walking>, fillcolor="#9bf2f0"] ;
53 -> 54 ;
55 [label=<x &le; 1683.5<br/>gini = 0.582<br/>samples = 557<br/>value = [1, 0, 210, 289, 14, 0, 43]<br/>class = Walking>, fillcolor="#d2f9f8"] ;
54 -> 55 ;
56 [label=<gini = 0.467<br/>samples = 227<br/>value = [1, 0, 58, 155, 7, 0, 6]<br/>class = Walking>, fillcolor="#8df0ee"] ;
55 -> 56 ;
57 [label=<gini = 0.61<br/>samples = 330<br/>value = [0, 0, 152, 134, 7, 0, 37]<br/>class = Standing>, fillcolor="#edfdef"] ;
55 -> 57 ;
58 [label=<x &le; 2043.5<br/>gini = 0.518<br/>samples = 1162<br/>value = [96, 85, 184, 775, 9, 0, 13]<br/>class = Walking>, fillcolor="#87efed"] ;
54 -> 58 ;
59 [label=<gini = 0.479<br/>samples = 932<br/>value = [91, 69, 94, 656, 9, 0, 13]<br/>class = Walking>, fillcolor="#7aeeec"] ;
58 -> 59 ;
60 [label=<gini = 0.574<br/>samples = 230<br/>value = [5, 16, 90, 119, 0, 0, 0]<br/>class = Walking>, fillcolor="#d6faf9"] ;
58 -> 60 ;
61 [label=<z &le; 1768.5<br/>gini = 0.531<br/>samples = 1070<br/>value = [43, 113, 686, 227, 1, 0, 0]<br/>class = Standing>, fillcolor="#93f19e"] ;
53 -> 61 ;
62 [label=<z &le; 1683.5<br/>gini = 0.634<br/>samples = 88<br/>value = [12, 23, 7, 46, 0, 0, 0]<br/>class = Walking>, fillcolor="#b9f6f5"] ;
61 -> 62 ;
63 [label=<gini = 0.0<br/>samples = 4<br/>value = [0, 4, 0, 0, 0, 0, 0]<br/>class = Moving>, fillcolor="#b7e539"] ;
62 -> 63 ;
64 [label=<gini = 0.622<br/>samples = 84<br/>value = [12, 19, 7, 46, 0, 0, 0]<br/>class = Walking>, fillcolor="#adf4f3"] ;
62 -> 64 ;
65 [label=<y &le; 2323.5<br/>gini = 0.479<br/>samples = 982<br/>value = [31, 90, 679, 181, 1, 0, 0]<br/>class = Standing>, fillcolor="#84ef90"] ;
61 -> 65 ;
66 [label=<gini = 0.582<br/>samples = 255<br/>value = [16, 20, 146, 72, 1, 0, 0]<br/>class = Standing>, fillcolor="#aff4b7"] ;
65 -> 66 ;
67 [label=<gini = 0.43<br/>samples = 727<br/>value = [15, 70, 533, 109, 0, 0, 0]<br/>class = Standing>, fillcolor="#77ed85"] ;
65 -> 67 ;
68 [label=<x &le; 2153.5<br/>gini = 0.416<br/>samples = 664<br/>value = [496, 83, 19, 65, 1, 0, 0]<br/>class = Computer>, fillcolor="#eda572"] ;
52 -> 68 ;
69 [label=<y &le; 2321.5<br/>gini = 0.597<br/>samples = 295<br/>value = [171, 58, 19, 46, 1, 0, 0]<br/>class = Computer>, fillcolor="#f3c3a1"] ;
68 -> 69 ;
70 [label=<x &le; 2152.5<br/>gini = 0.406<br/>samples = 117<br/>value = [88, 18, 4, 7, 0, 0, 0]<br/>class = Computer>, fillcolor="#eda673"] ;
69 -> 70 ;
71 [label=<gini = 0.376<br/>samples = 112<br/>value = [87, 14, 4, 7, 0, 0, 0]<br/>class = Computer>, fillcolor="#eca16c"] ;
70 -> 71 ;
72 [label=<gini = 0.32<br/>samples = 5<br/>value = [1, 4, 0, 0, 0, 0, 0]<br/>class = Moving>, fillcolor="#c9ec6a"] ;
70 -> 72 ;
73 [label=<x &le; 2107.5<br/>gini = 0.677<br/>samples = 178<br/>value = [83, 40, 15, 39, 1, 0, 0]<br/>class = Computer>, fillcolor="#f7d8c1"] ;
69 -> 73 ;
74 [label=<gini = 0.741<br/>samples = 54<br/>value = [19, 9, 13, 12, 1, 0, 0]<br/>class = Computer>, fillcolor="#fbede2"] ;
73 -> 74 ;
75 [label=<gini = 0.623<br/>samples = 124<br/>value = [64, 31, 2, 27, 0, 0, 0]<br/>class = Computer>, fillcolor="#f6d2b9"] ;
73 -> 75 ;
76 [label=<z &le; 1736.5<br/>gini = 0.217<br/>samples = 369<br/>value = [325, 25, 0, 19, 0, 0, 0]<br/>class = Computer>, fillcolor="#e89152"] ;
68 -> 76 ;
77 [label=<x &le; 2170.5<br/>gini = 0.44<br/>samples = 43<br/>value = [31, 5, 0, 7, 0, 0, 0]<br/>class = Computer>, fillcolor="#eeab7b"] ;
76 -> 77 ;
78 [label=<gini = 0.611<br/>samples = 6<br/>value = [2, 1, 0, 3, 0, 0, 0]<br/>class = Walking>, fillcolor="#cef8f8"] ;
77 -> 78 ;
79 [label=<gini = 0.362<br/>samples = 37<br/>value = [29, 4, 0, 4, 0, 0, 0]<br/>class = Computer>, fillcolor="#eba069"] ;
77 -> 79 ;
80 [label=<x &le; 2289.5<br/>gini = 0.182<br/>samples = 326<br/>value = [294, 20, 0, 12, 0, 0, 0]<br/>class = Computer>, fillcolor="#e88e4e"] ;
76 -> 80 ;
81 [label=<gini = 0.168<br/>samples = 321<br/>value = [292, 19, 0, 10, 0, 0, 0]<br/>class = Computer>, fillcolor="#e78d4c"] ;
80 -> 81 ;
82 [label=<gini = 0.64<br/>samples = 5<br/>value = [2, 1, 0, 2, 0, 0, 0]<br/>class = Computer>, fillcolor="#ffffff"] ;
80 -> 82 ;
83 [label=<x &le; 2070.5<br/>gini = 0.407<br/>samples = 9532<br/>value = [438, 284, 880, 7256, 363, 46, 265]<br/>class = Walking>, fillcolor="#6decea"] ;
51 -> 83 ;
84 [label=<z &le; 1552.5<br/>gini = 0.341<br/>samples = 6607<br/>value = [151, 119, 590, 5319, 267, 34, 127]<br/>class = Walking>, fillcolor="#63ebe8"] ;
83 -> 84 ;
85 [label=<x &le; 1946.0<br/>gini = 0.722<br/>samples = 46<br/>value = [13, 18, 3, 9, 1, 0, 2]<br/>class = Moving>, fillcolor="#f4fbe1"] ;
84 -> 85 ;
86 [label=<z &le; 1505.5<br/>gini = 0.499<br/>samples = 19<br/>value = [13, 2, 2, 0, 0, 0, 2]<br/>class = Computer>, fillcolor="#eead7f"] ;
85 -> 86 ;
87 [label=<gini = 0.245<br/>samples = 14<br/>value = [12, 0, 0, 0, 0, 0, 2]<br/>class = Computer>, fillcolor="#e9965a"] ;
86 -> 87 ;
88 [label=<gini = 0.64<br/>samples = 5<br/>value = [1, 2, 2, 0, 0, 0, 0]<br/>class = Moving>, fillcolor="#ffffff"] ;
86 -> 88 ;
89 [label=<y &le; 2440.0<br/>gini = 0.535<br/>samples = 27<br/>value = [0, 16, 1, 9, 1, 0, 0]<br/>class = Moving>, fillcolor="#e3f5b2"] ;
85 -> 89 ;
90 [label=<gini = 0.278<br/>samples = 6<br/>value = [0, 0, 0, 5, 1, 0, 0]<br/>class = Walking>, fillcolor="#61eae8"] ;
89 -> 90 ;
91 [label=<gini = 0.381<br/>samples = 21<br/>value = [0, 16, 1, 4, 0, 0, 0]<br/>class = Moving>, fillcolor="#cced73"] ;
89 -> 91 ;
92 [label=<z &le; 1751.5<br/>gini = 0.334<br/>samples = 6561<br/>value = [138, 101, 587, 5310, 266, 34, 125]<br/>class = Walking>, fillcolor="#62eae8"] ;
84 -> 92 ;
93 [label=<y &le; 2590.5<br/>gini = 0.251<br/>samples = 2946<br/>value = [66, 45, 202, 2540, 53, 7, 33]<br/>class = Walking>, fillcolor="#56e9e6"] ;
92 -> 93 ;
94 [label=<gini = 0.221<br/>samples = 2681<br/>value = [58, 30, 155, 2359, 44, 7, 28]<br/>class = Walking>, fillcolor="#52e8e6"] ;
93 -> 94 ;
95 [label=<gini = 0.496<br/>samples = 265<br/>value = [8, 15, 47, 181, 9, 0, 5]<br/>class = Walking>, fillcolor="#85efed"] ;
93 -> 95 ;
96 [label=<y &le; 2473.5<br/>gini = 0.397<br/>samples = 3615<br/>value = [72, 56, 385, 2770, 213, 27, 92]<br/>class = Walking>, fillcolor="#6decea"] ;
92 -> 96 ;
97 [label=<gini = 0.349<br/>samples = 2530<br/>value = [61, 53, 222, 2023, 118, 4, 49]<br/>class = Walking>, fillcolor="#64ebe8"] ;
96 -> 97 ;
98 [label=<gini = 0.494<br/>samples = 1085<br/>value = [11, 3, 163, 747, 95, 23, 43]<br/>class = Walking>, fillcolor="#82efed"] ;
96 -> 98 ;
99 [label=<y &le; 2393.5<br/>gini = 0.536<br/>samples = 2925<br/>value = [287, 165, 290, 1937, 96, 12, 138]<br/>class = Walking>, fillcolor="#83efed"] ;
83 -> 99 ;
100 [label=<x &le; 2101.5<br/>gini = 0.645<br/>samples = 469<br/>value = [144, 81, 14, 225, 2, 0, 3]<br/>class = Walking>, fillcolor="#cef9f8"] ;
99 -> 100 ;
101 [label=<y &le; 2349.5<br/>gini = 0.487<br/>samples = 159<br/>value = [11, 24, 13, 110, 1, 0, 0]<br/>class = Walking>, fillcolor="#81eeed"] ;
100 -> 101 ;
102 [label=<gini = 0.667<br/>samples = 18<br/>value = [1, 3, 7, 7, 0, 0, 0]<br/>class = Standing>, fillcolor="#ffffff"] ;
101 -> 102 ;
103 [label=<gini = 0.437<br/>samples = 141<br/>value = [10, 21, 6, 103, 1, 0, 0]<br/>class = Walking>, fillcolor="#78edeb"] ;
101 -> 103 ;
104 [label=<x &le; 2163.5<br/>gini = 0.644<br/>samples = 310<br/>value = [133, 57, 1, 115, 1, 0, 3]<br/>class = Computer>, fillcolor="#fdf3ed"] ;
100 -> 104 ;
105 [label=<gini = 0.656<br/>samples = 152<br/>value = [44, 39, 0, 67, 0, 0, 2]<br/>class = Walking>, fillcolor="#d5f9f9"] ;
104 -> 105 ;
106 [label=<gini = 0.577<br/>samples = 158<br/>value = [89, 18, 1, 48, 1, 0, 1]<br/>class = Computer>, fillcolor="#f5d0b5"] ;
104 -> 106 ;
107 [label=<x &le; 2299.5<br/>gini = 0.492<br/>samples = 2456<br/>value = [143, 84, 276, 1712, 94, 12, 135]<br/>class = Walking>, fillcolor="#7deeec"] ;
99 -> 107 ;
108 [label=<y &le; 2733.0<br/>gini = 0.477<br/>samples = 2406<br/>value = [111, 75, 275, 1705, 93, 12, 135]<br/>class = Walking>, fillcolor="#7aeeec"] ;
107 -> 108 ;
109 [label=<gini = 0.467<br/>samples = 2374<br/>value = [104, 68, 266, 1701, 92, 12, 131]<br/>class = Walking>, fillcolor="#78edeb"] ;
108 -> 109 ;
110 [label=<gini = 0.793<br/>samples = 32<br/>value = [7, 7, 9, 4, 1, 0, 4]<br/>class = Standing>, fillcolor="#effdf1"] ;
108 -> 110 ;
111 [label=<y &le; 2852.0<br/>gini = 0.538<br/>samples = 50<br/>value = [32, 9, 1, 7, 1, 0, 0]<br/>class = Computer>, fillcolor="#f0b890"] ;
107 -> 111 ;
112 [label=<gini = 0.693<br/>samples = 30<br/>value = [12, 9, 1, 7, 1, 0, 0]<br/>class = Computer>, fillcolor="#fbede3"] ;
111 -> 112 ;
113 [label=<gini = 0.0<br/>samples = 20<br/>value = [20, 0, 0, 0, 0, 0, 0]<br/>class = Computer>, fillcolor="#e58139"] ;
111 -> 113 ;
114 [label=<z &le; 1991.5<br/>gini = 0.758<br/>samples = 1350110<br/>value = [383988, 30325, 159865, 257789, 38098, 35851, 444194]<br/>class = Standing + talking>, fillcolor="#fdf3f7"] ;
0 -> 114 [labeldistance=2.5, labelangle=-45, headlabel="False"] ;
115 [label=<z &le; 1885.5<br/>gini = 0.744<br/>samples = 654816<br/>value = [97239, 15767, 102088, 131306, 16645, 24504, 267267]<br/>class = Standing + talking>, fillcolor="#f8cce0"] ;
114 -> 115 ;
116 [label=<x &le; 1851.5<br/>gini = 0.779<br/>samples = 158343<br/>value = [54276, 3526, 22778, 28474, 6230, 9381, 33678]<br/>class = Computer>, fillcolor="#fbeade"] ;
115 -> 116 ;
117 [label=<y &le; 2256.5<br/>gini = 0.75<br/>samples = 37614<br/>value = [1501, 96, 9784, 4990, 2616, 4316, 14311]<br/>class = Standing + talking>, fillcolor="#fbdfeb"] ;
116 -> 117 ;
118 [label=<x &le; 1742.5<br/>gini = 0.551<br/>samples = 12947<br/>value = [422, 5, 1551, 1559, 109, 977, 8324]<br/>class = Standing + talking>, fillcolor="#f089b7"] ;
117 -> 118 ;
119 [label=<x &le; 1719.5<br/>gini = 0.547<br/>samples = 1547<br/>value = [12, 2, 232, 964, 19, 2, 316]<br/>class = Walking>, fillcolor="#97f1f0"] ;
118 -> 119 ;
120 [label=<gini = 0.489<br/>samples = 1102<br/>value = [11, 2, 170, 755, 17, 0, 147]<br/>class = Walking>, fillcolor="#83efed"] ;
119 -> 120 ;
121 [label=<gini = 0.616<br/>samples = 445<br/>value = [1, 0, 62, 209, 2, 2, 169]<br/>class = Walking>, fillcolor="#e2fbfb"] ;
119 -> 121 ;
122 [label=<z &le; 1806.5<br/>gini = 0.482<br/>samples = 11400<br/>value = [410, 3, 1319, 595, 90, 975, 8008]<br/>class = Standing + talking>, fillcolor="#ee7caf"] ;
118 -> 122 ;
123 [label=<gini = 0.637<br/>samples = 722<br/>value = [317, 0, 36, 32, 4, 42, 291]<br/>class = Computer>, fillcolor="#fdf7f3"] ;
122 -> 123 ;
124 [label=<gini = 0.453<br/>samples = 10678<br/>value = [93, 3, 1283, 563, 86, 933, 7717]<br/>class = Standing + talking>, fillcolor="#ed77ac"] ;
122 -> 124 ;
125 [label=<y &le; 2307.5<br/>gini = 0.78<br/>samples = 24667<br/>value = [1079, 91, 8233, 3431, 2507, 3339, 5987]<br/>class = Standing>, fillcolor="#e7fcea"] ;
117 -> 125 ;
126 [label=<x &le; 1814.5<br/>gini = 0.754<br/>samples = 20829<br/>value = [976, 8, 7563, 1021, 2456, 3232, 5573]<br/>class = Standing>, fillcolor="#e5fce8"] ;
125 -> 126 ;
127 [label=<gini = 0.725<br/>samples = 16309<br/>value = [933, 5, 7174, 604, 2420, 1797, 3376]<br/>class = Standing>, fillcolor="#c5f7cb"] ;
126 -> 127 ;
128 [label=<gini = 0.647<br/>samples = 4520<br/>value = [43, 3, 389, 417, 36, 1435, 2197]<br/>class = Standing + talking>, fillcolor="#f9cee1"] ;
126 -> 128 ;
129 [label=<y &le; 2382.5<br/>gini = 0.561<br/>samples = 3838<br/>value = [103, 83, 670, 2410, 51, 107, 414]<br/>class = Walking>, fillcolor="#92f1ef"] ;
125 -> 129 ;
130 [label=<gini = 0.684<br/>samples = 2332<br/>value = [81, 71, 554, 1118, 37, 98, 373]<br/>class = Walking>, fillcolor="#c0f7f6"] ;
129 -> 130 ;
131 [label=<gini = 0.257<br/>samples = 1506<br/>value = [22, 12, 116, 1292, 14, 9, 41]<br/>class = Walking>, fillcolor="#57e9e6"] ;
129 -> 131 ;
132 [label=<y &le; 2363.5<br/>gini = 0.73<br/>samples = 120729<br/>value = [52775, 3430, 12994, 23484, 3614, 5065, 19367]<br/>class = Computer>, fillcolor="#f7d9c3"] ;
116 -> 132 ;
133 [label=<x &le; 1977.5<br/>gini = 0.501<br/>samples = 70648<br/>value = [48203, 2187, 3804, 11344, 864, 168, 4078]<br/>class = Computer>, fillcolor="#efb184"] ;
132 -> 133 ;
134 [label=<y &le; 2301.5<br/>gini = 0.235<br/>samples = 38566<br/>value = [33589, 696, 397, 2584, 14, 41, 1245]<br/>class = Computer>, fillcolor="#e99254"] ;
133 -> 134 ;
135 [label=<gini = 0.568<br/>samples = 2050<br/>value = [370, 37, 214, 1270, 6, 23, 130]<br/>class = Walking>, fillcolor="#95f1ef"] ;
134 -> 135 ;
136 [label=<gini = 0.17<br/>samples = 36516<br/>value = [33219, 659, 183, 1314, 8, 18, 1115]<br/>class = Computer>, fillcolor="#e78d4c"] ;
134 -> 136 ;
137 [label=<y &le; 2341.5<br/>gini = 0.696<br/>samples = 32082<br/>value = [14614, 1491, 3407, 8760, 850, 127, 2833]<br/>class = Computer>, fillcolor="#f8dfcd"] ;
133 -> 137 ;
138 [label=<gini = 0.628<br/>samples = 14581<br/>value = [5355, 866, 838, 6992, 182, 40, 308]<br/>class = Walking>, fillcolor="#dcfafa"] ;
137 -> 138 ;
139 [label=<gini = 0.665<br/>samples = 17501<br/>value = [9259, 625, 2569, 1768, 668, 87, 2525]<br/>class = Computer>, fillcolor="#f3c7a6"] ;
137 -> 139 ;
140 [label=<z &le; 1855.5<br/>gini = 0.793<br/>samples = 50081<br/>value = [4572, 1243, 9190, 12140, 2750, 4897, 15289]<br/>class = Standing + talking>, fillcolor="#fdeff5"] ;
132 -> 140 ;
141 [label=<z &le; 1833.5<br/>gini = 0.726<br/>samples = 14951<br/>value = [1433, 815, 2295, 6902, 527, 817, 2162]<br/>class = Walking>, fillcolor="#b7f6f4"] ;
140 -> 141 ;
142 [label=<gini = 0.626<br/>samples = 6720<br/>value = [338, 483, 918, 3891, 273, 149, 668]<br/>class = Walking>, fillcolor="#9af2f0"] ;
141 -> 142 ;
143 [label=<gini = 0.778<br/>samples = 8231<br/>value = [1095, 332, 1377, 3011, 254, 668, 1494]<br/>class = Walking>, fillcolor="#d2f9f8"] ;
141 -> 143 ;
144 [label=<y &le; 2474.5<br/>gini = 0.774<br/>samples = 35130<br/>value = [3139, 428, 6895, 5238, 2223, 4080, 13127]<br/>class = Standing + talking>, fillcolor="#f9d3e4"] ;
140 -> 144 ;
145 [label=<gini = 0.638<br/>samples = 17003<br/>value = [938, 292, 1577, 2920, 163, 1631, 9482]<br/>class = Standing + talking>, fillcolor="#f3a3c7"] ;
144 -> 145 ;
146 [label=<gini = 0.811<br/>samples = 18127<br/>value = [2201, 136, 5318, 2318, 2060, 2449, 3645]<br/>class = Standing>, fillcolor="#e8fcea"] ;
144 -> 146 ;
147 [label=<y &le; 2327.5<br/>gini = 0.701<br/>samples = 496473<br/>value = [42963, 12241, 79310, 102832, 10415, 15123, 233589]<br/>class = Standing + talking>, fillcolor="#f6bdd7"] ;
115 -> 147 ;
148 [label=<x &le; 2064.5<br/>gini = 0.723<br/>samples = 100729<br/>value = [1224, 1313, 22956, 39259, 3415, 6246, 26316]<br/>class = Walking>, fillcolor="#ddfafa"] ;
147 -> 148 ;
149 [label=<x &le; 1831.5<br/>gini = 0.603<br/>samples = 53042<br/>value = [863, 1119, 9142, 30852, 1238, 985, 8843]<br/>class = Walking>, fillcolor="#9df2f1"] ;
148 -> 149 ;
150 [label=<y &le; 2037.5<br/>gini = 0.698<br/>samples = 20838<br/>value = [341, 382, 6083, 7590, 213, 223, 6006]<br/>class = Walking>, fillcolor="#ebfcfc"] ;
149 -> 150 ;
151 [label=<gini = 0.048<br/>samples = 740<br/>value = [17, 0, 0, 1, 0, 0, 722]<br/>class = Standing + talking>, fillcolor="#e63e89"] ;
150 -> 151 ;
152 [label=<gini = 0.696<br/>samples = 20098<br/>value = [324, 382, 6083, 7589, 213, 223, 5284]<br/>class = Walking>, fillcolor="#eafcfc"] ;
150 -> 152 ;
153 [label=<y &le; 2318.5<br/>gini = 0.459<br/>samples = 32204<br/>value = [522, 737, 3059, 23262, 1025, 762, 2837]<br/>class = Walking>, fillcolor="#76edeb"] ;
149 -> 153 ;
154 [label=<gini = 0.408<br/>samples = 27195<br/>value = [286, 556, 2621, 20667, 919, 595, 1551]<br/>class = Walking>, fillcolor="#6eecea"] ;
153 -> 154 ;
155 [label=<gini = 0.653<br/>samples = 5009<br/>value = [236, 181, 438, 2595, 106, 167, 1286]<br/>class = Walking>, fillcolor="#b9f6f5"] ;
153 -> 155 ;
156 [label=<y &le; 2313.5<br/>gini = 0.736<br/>samples = 47687<br/>value = [361, 194, 13814, 8407, 2177, 5261, 17473]<br/>class = Standing + talking>, fillcolor="#fceaf2"] ;
148 -> 156 ;
157 [label=<y &le; 2277.5<br/>gini = 0.695<br/>samples = 22312<br/>value = [329, 137, 2754, 5538, 683, 2568, 10303]<br/>class = Standing + talking>, fillcolor="#f8c7dd"] ;
156 -> 157 ;
158 [label=<gini = 0.584<br/>samples = 5281<br/>value = [266, 60, 622, 3188, 110, 55, 980]<br/>class = Walking>, fillcolor="#99f2f0"] ;
157 -> 158 ;
159 [label=<gini = 0.643<br/>samples = 17031<br/>value = [63, 77, 2132, 2350, 573, 2513, 9323]<br/>class = Standing + talking>, fillcolor="#f3a2c6"] ;
157 -> 159 ;
160 [label=<x &le; 2108.5<br/>gini = 0.703<br/>samples = 25375<br/>value = [32, 57, 11060, 2869, 1494, 2693, 7170]<br/>class = Standing>, fillcolor="#d5f9d9"] ;
156 -> 160 ;
161 [label=<gini = 0.659<br/>samples = 20202<br/>value = [2, 25, 10492, 2054, 1344, 1825, 4460]<br/>class = Standing>, fillcolor="#b3f5bb"] ;
160 -> 161 ;
162 [label=<gini = 0.66<br/>samples = 5173<br/>value = [30, 32, 568, 815, 150, 868, 2710]<br/>class = Standing + talking>, fillcolor="#f4aacb"] ;
160 -> 162 ;
163 [label=<y &le; 2411.5<br/>gini = 0.667<br/>samples = 395744<br/>value = [41739, 10928, 56354, 63573, 7000, 8877, 207273]<br/>class = Standing + talking>, fillcolor="#f4a9cb"] ;
147 -> 163 ;
164 [label=<y &le; 2379.5<br/>gini = 0.605<br/>samples = 323026<br/>value = [36780, 7941, 42817, 31743, 4763, 6824, 192158]<br/>class = Standing + talking>, fillcolor="#f195bf"] ;
163 -> 164 ;
165 [label=<z &le; 1964.5<br/>gini = 0.678<br/>samples = 221151<br/>value = [33889, 6742, 36480, 21988, 3892, 5446, 112714]<br/>class = Standing + talking>, fillcolor="#f4adcd"] ;
164 -> 165 ;
166 [label=<gini = 0.601<br/>samples = 142689<br/>value = [22157, 3953, 12931, 14082, 1194, 3286, 85086]<br/>class = Standing + talking>, fillcolor="#f198c0"] ;
165 -> 166 ;
167 [label=<gini = 0.75<br/>samples = 78462<br/>value = [11732, 2789, 23549, 7906, 2698, 2160, 27628]<br/>class = Standing + talking>, fillcolor="#fdf0f6"] ;
165 -> 167 ;
168 [label=<x &le; 1878.5<br/>gini = 0.378<br/>samples = 101875<br/>value = [2891, 1199, 6337, 9755, 871, 1378, 79444]<br/>class = Standing + talking>, fillcolor="#eb69a3"] ;
164 -> 168 ;
169 [label=<gini = 0.731<br/>samples = 4773<br/>value = [177, 234, 1423, 1780, 100, 151, 908]<br/>class = Walking>, fillcolor="#eafcfc"] ;
168 -> 169 ;
170 [label=<gini = 0.335<br/>samples = 97102<br/>value = [2714, 965, 4914, 7975, 771, 1227, 78536]<br/>class = Standing + talking>, fillcolor="#ea629f"] ;
168 -> 170 ;
171 [label=<x &le; 1996.5<br/>gini = 0.722<br/>samples = 72718<br/>value = [4959, 2987, 13537, 31830, 2237, 2053, 15115]<br/>class = Walking>, fillcolor="#c6f7f7"] ;
163 -> 171 ;
172 [label=<x &le; 1966.5<br/>gini = 0.389<br/>samples = 19623<br/>value = [321, 837, 1446, 15211, 594, 559, 655]<br/>class = Walking>, fillcolor="#69ebe9"] ;
171 -> 172 ;
173 [label=<gini = 0.332<br/>samples = 16230<br/>value = [228, 600, 904, 13193, 475, 486, 344]<br/>class = Walking>, fillcolor="#60eae8"] ;
172 -> 173 ;
174 [label=<gini = 0.605<br/>samples = 3393<br/>value = [93, 237, 542, 2018, 119, 73, 311]<br/>class = Walking>, fillcolor="#98f2f0"] ;
172 -> 174 ;
175 [label=<x &le; 2062.5<br/>gini = 0.765<br/>samples = 53095<br/>value = [4638, 2150, 12091, 16619, 1643, 1494, 14460]<br/>class = Walking>, fillcolor="#f4fefd"] ;
171 -> 175 ;
176 [label=<gini = 0.686<br/>samples = 20539<br/>value = [822, 200, 8233, 7115, 385, 178, 3606]<br/>class = Standing>, fillcolor="#effdf0"] ;
175 -> 176 ;
177 [label=<gini = 0.769<br/>samples = 32556<br/>value = [3816, 1950, 3858, 9504, 1258, 1316, 10854]<br/>class = Standing + talking>, fillcolor="#fdf3f8"] ;
175 -> 177 ;
178 [label=<x &le; 2026.5<br/>gini = 0.724<br/>samples = 695294<br/>value = [286749, 14558, 57777, 126483, 21453, 11347, 176927]<br/>class = Computer>, fillcolor="#f9e4d5"] ;
114 -> 178 ;
179 [label=<y &le; 2327.5<br/>gini = 0.65<br/>samples = 399862<br/>value = [214262, 10591, 23841, 78142, 12484, 4849, 55693]<br/>class = Computer>, fillcolor="#f4caab"] ;
178 -> 179 ;
180 [label=<x &le; 1779.5<br/>gini = 0.633<br/>samples = 48301<br/>value = [3545, 1055, 3086, 27474, 4363, 1236, 7542]<br/>class = Walking>, fillcolor="#9ef2f1"] ;
179 -> 180 ;
181 [label=<y &le; 2182.5<br/>gini = 0.447<br/>samples = 8617<br/>value = [189, 210, 458, 1497, 45, 8, 6210]<br/>class = Standing + talking>, fillcolor="#ee7caf"] ;
180 -> 181 ;
182 [label=<x &le; 1621.5<br/>gini = 0.063<br/>samples = 4741<br/>value = [96, 1, 11, 41, 3, 0, 4589]<br/>class = Standing + talking>, fillcolor="#e63f8a"] ;
181 -> 182 ;
183 [label=<gini = 0.485<br/>samples = 169<br/>value = [55, 1, 3, 2, 0, 0, 108]<br/>class = Standing + talking>, fillcolor="#f3a3c7"] ;
182 -> 183 ;
184 [label=<gini = 0.039<br/>samples = 4572<br/>value = [41, 0, 8, 39, 3, 0, 4481]<br/>class = Standing + talking>, fillcolor="#e63d88"] ;
182 -> 184 ;
185 [label=<y &le; 2306.5<br/>gini = 0.667<br/>samples = 3876<br/>value = [93, 209, 447, 1456, 42, 8, 1621]<br/>class = Standing + talking>, fillcolor="#fdf2f7"] ;
181 -> 185 ;
186 [label=<gini = 0.613<br/>samples = 2007<br/>value = [76, 80, 314, 1149, 27, 7, 354]<br/>class = Walking>, fillcolor="#a0f2f1"] ;
185 -> 186 ;
187 [label=<gini = 0.503<br/>samples = 1869<br/>value = [17, 129, 133, 307, 15, 1, 1267]<br/>class = Standing + talking>, fillcolor="#ef85b5"] ;
185 -> 187 ;
188 [label=<z &le; 2105.5<br/>gini = 0.546<br/>samples = 39684<br/>value = [3356, 845, 2628, 25977, 4318, 1228, 1332]<br/>class = Walking>, fillcolor="#86efed"] ;
180 -> 188 ;
189 [label=<x &le; 1948.5<br/>gini = 0.484<br/>samples = 35148<br/>value = [1293, 718, 2399, 24786, 3554, 1173, 1225]<br/>class = Walking>, fillcolor="#7aeeec"] ;
188 -> 189 ;
190 [label=<gini = 0.421<br/>samples = 22464<br/>value = [677, 440, 868, 16888, 2006, 1000, 585]<br/>class = Walking>, fillcolor="#6fecea"] ;
189 -> 190 ;
191 [label=<gini = 0.577<br/>samples = 12684<br/>value = [616, 278, 1531, 7898, 1548, 173, 640]<br/>class = Walking>, fillcolor="#8ef0ee"] ;
189 -> 191 ;
192 [label=<y &le; 2305.5<br/>gini = 0.692<br/>samples = 4536<br/>value = [2063, 127, 229, 1191, 764, 55, 107]<br/>class = Computer>, fillcolor="#f8decb"] ;
188 -> 192 ;
193 [label=<gini = 0.751<br/>samples = 1622<br/>value = [356, 74, 154, 598, 374, 21, 45]<br/>class = Walking>, fillcolor="#dbfafa"] ;
192 -> 193 ;
194 [label=<gini = 0.596<br/>samples = 2914<br/>value = [1707, 53, 75, 593, 390, 34, 62]<br/>class = Computer>, fillcolor="#f3c3a0"] ;
192 -> 194 ;
195 [label=<y &le; 2391.5<br/>gini = 0.596<br/>samples = 351561<br/>value = [210717, 9536, 20755, 50668, 8121, 3613, 48151]<br/>class = Computer>, fillcolor="#f1bc96"] ;
179 -> 195 ;
196 [label=<y &le; 2377.5<br/>gini = 0.528<br/>samples = 284813<br/>value = [188666, 7902, 16425, 23187, 3879, 2121, 42633]<br/>class = Computer>, fillcolor="#efb388"] ;
195 -> 196 ;
197 [label=<x &le; 2010.5<br/>gini = 0.454<br/>samples = 197648<br/>value = [143580, 5949, 10302, 18441, 3107, 1515, 14754]<br/>class = Computer>, fillcolor="#eda775"] ;
196 -> 197 ;
198 [label=<gini = 0.424<br/>samples = 189961<br/>value = [142228, 5843, 8911, 16777, 2622, 1316, 12264]<br/>class = Computer>, fillcolor="#eca470"] ;
197 -> 198 ;
199 [label=<gini = 0.78<br/>samples = 7687<br/>value = [1352, 106, 1391, 1664, 485, 199, 2490]<br/>class = Standing + talking>, fillcolor="#fbe4ee"] ;
197 -> 199 ;
200 [label=<z &le; 2016.5<br/>gini = 0.622<br/>samples = 87165<br/>value = [45086, 1953, 6123, 4746, 772, 606, 27879]<br/>class = Computer>, fillcolor="#f7dac6"] ;
196 -> 200 ;
201 [label=<gini = 0.497<br/>samples = 26819<br/>value = [3086, 199, 2944, 1412, 336, 367, 18475]<br/>class = Standing + talking>, fillcolor="#ee7fb1"] ;
200 -> 201 ;
202 [label=<gini = 0.485<br/>samples = 60346<br/>value = [42000, 1754, 3179, 3334, 436, 239, 9404]<br/>class = Computer>, fillcolor="#eeae80"] ;
200 -> 202 ;
203 [label=<x &le; 2010.5<br/>gini = 0.705<br/>samples = 66748<br/>value = [22051, 1634, 4330, 27481, 4242, 1492, 5518]<br/>class = Walking>, fillcolor="#e7fcfb"] ;
195 -> 203 ;
204 [label=<y &le; 2402.5<br/>gini = 0.647<br/>samples = 44147<br/>value = [4859, 1125, 3506, 24759, 3910, 1401, 4587]<br/>class = Walking>, fillcolor="#9bf2f0"] ;
203 -> 204 ;
205 [label=<gini = 0.774<br/>samples = 10277<br/>value = [2718, 345, 1082, 2740, 399, 255, 2738]<br/>class = Walking>, fillcolor="#ffffff"] ;
204 -> 205 ;
206 [label=<gini = 0.553<br/>samples = 33870<br/>value = [2141, 780, 2424, 22019, 3511, 1146, 1849]<br/>class = Walking>, fillcolor="#86efed"] ;
204 -> 206 ;
207 [label=<y &le; 2523.5<br/>gini = 0.403<br/>samples = 22601<br/>value = [17192, 509, 824, 2722, 332, 91, 931]<br/>class = Computer>, fillcolor="#eca36f"] ;
203 -> 207 ;
208 [label=<gini = 0.708<br/>samples = 3564<br/>value = [363, 68, 491, 1669, 210, 56, 707]<br/>class = Walking>, fillcolor="#bcf6f5"] ;
207 -> 208 ;
209 [label=<gini = 0.214<br/>samples = 19037<br/>value = [16829, 441, 333, 1053, 122, 35, 224]<br/>class = Computer>, fillcolor="#e89051"] ;
207 -> 209 ;
210 [label=<y &le; 2521.5<br/>gini = 0.73<br/>samples = 295432<br/>value = [72487, 3967, 33936, 48341, 8969, 6498, 121234]<br/>class = Standing + talking>, fillcolor="#f9d4e5"] ;
178 -> 210 ;
211 [label=<y &le; 2395.5<br/>gini = 0.712<br/>samples = 125890<br/>value = [3226, 1432, 24668, 33104, 6065, 4600, 52795]<br/>class = Standing + talking>, fillcolor="#f9d5e5"] ;
210 -> 211 ;
212 [label=<z &le; 2064.5<br/>gini = 0.678<br/>samples = 97566<br/>value = [1584, 1116, 20257, 18255, 4470, 4108, 47776]<br/>class = Standing + talking>, fillcolor="#f6b9d4"] ;
211 -> 212 ;
213 [label=<y &le; 2265.5<br/>gini = 0.64<br/>samples = 84299<br/>value = [982, 697, 18177, 11844, 3413, 3833, 45353]<br/>class = Standing + talking>, fillcolor="#f4aecd"] ;
212 -> 213 ;
214 [label=<gini = 0.567<br/>samples = 6200<br/>value = [38, 39, 947, 3835, 400, 7, 934]<br/>class = Walking>, fillcolor="#92f1ef"] ;
213 -> 214 ;
215 [label=<gini = 0.613<br/>samples = 78099<br/>value = [944, 658, 17230, 8009, 3013, 3826, 44419]<br/>class = Standing + talking>, fillcolor="#f3a7c9"] ;
213 -> 215 ;
216 [label=<z &le; 2096.5<br/>gini = 0.699<br/>samples = 13267<br/>value = [602, 419, 2080, 6411, 1057, 275, 2423]<br/>class = Walking>, fillcolor="#b6f5f4"] ;
212 -> 216 ;
217 [label=<gini = 0.736<br/>samples = 6986<br/>value = [230, 157, 1156, 2775, 631, 213, 1824]<br/>class = Walking>, fillcolor="#dbfafa"] ;
216 -> 217 ;
218 [label=<gini = 0.624<br/>samples = 6281<br/>value = [372, 262, 924, 3636, 426, 62, 599]<br/>class = Walking>, fillcolor="#9bf2f0"] ;
216 -> 218 ;
219 [label=<y &le; 2506.5<br/>gini = 0.663<br/>samples = 28324<br/>value = [1642, 316, 4411, 14849, 1595, 492, 5019]<br/>class = Walking>, fillcolor="#abf4f3"] ;
211 -> 219 ;
220 [label=<y &le; 2411.5<br/>gini = 0.626<br/>samples = 22694<br/>value = [709, 252, 3692, 12837, 1358, 411, 3435]<br/>class = Walking>, fillcolor="#a0f2f1"] ;
219 -> 220 ;
221 [label=<gini = 0.68<br/>samples = 4189<br/>value = [82, 74, 661, 1987, 251, 61, 1073]<br/>class = Walking>, fillcolor="#c5f7f6"] ;
220 -> 221 ;
222 [label=<gini = 0.608<br/>samples = 18505<br/>value = [627, 178, 3031, 10850, 1107, 350, 2362]<br/>class = Walking>, fillcolor="#9bf2f0"] ;
220 -> 222 ;
223 [label=<x &le; 2109.5<br/>gini = 0.747<br/>samples = 5630<br/>value = [933, 64, 719, 2012, 237, 81, 1584]<br/>class = Walking>, fillcolor="#eafcfc"] ;
219 -> 223 ;
224 [label=<gini = 0.724<br/>samples = 3807<br/>value = [343, 41, 527, 1230, 164, 67, 1435]<br/>class = Standing + talking>, fillcolor="#fdeff5"] ;
223 -> 224 ;
225 [label=<gini = 0.692<br/>samples = 1823<br/>value = [590, 23, 192, 782, 73, 14, 149]<br/>class = Walking>, fillcolor="#e0fbfa"] ;
223 -> 225 ;
226 [label=<x &le; 2090.5<br/>gini = 0.658<br/>samples = 169542<br/>value = [69261, 2535, 9268, 15237, 2904, 1898, 68439]<br/>class = Computer>, fillcolor="#fffefd"] ;
210 -> 226 ;
227 [label=<z &le; 2081.5<br/>gini = 0.601<br/>samples = 103918<br/>value = [20763, 2105, 7420, 8721, 2016, 1737, 61156]<br/>class = Standing + talking>, fillcolor="#f29fc4"] ;
226 -> 227 ;
228 [label=<z &le; 2040.5<br/>gini = 0.54<br/>samples = 92015<br/>value = [12526, 2065, 6900, 6814, 1839, 1586, 60285]<br/>class = Standing + talking>, fillcolor="#ef88b6"] ;
227 -> 228 ;
229 [label=<gini = 0.777<br/>samples = 27386<br/>value = [8364, 1919, 3687, 4806, 999, 142, 7469]<br/>class = Computer>, fillcolor="#fef9f6"] ;
228 -> 229 ;
230 [label=<gini = 0.324<br/>samples = 64629<br/>value = [4162, 146, 3213, 2008, 840, 1444, 52816]<br/>class = Standing + talking>, fillcolor="#ea609e"] ;
228 -> 230 ;
231 [label=<y &le; 2546.5<br/>gini = 0.488<br/>samples = 11903<br/>value = [8237, 40, 520, 1907, 177, 151, 871]<br/>class = Computer>, fillcolor="#efaf82"] ;
227 -> 231 ;
232 [label=<gini = 0.245<br/>samples = 9326<br/>value = [8070, 19, 156, 614, 59, 36, 372]<br/>class = Computer>, fillcolor="#e99356"] ;
231 -> 232 ;
233 [label=<gini = 0.682<br/>samples = 2577<br/>value = [167, 21, 364, 1293, 118, 115, 499]<br/>class = Walking>, fillcolor="#b3f5f4"] ;
231 -> 233 ;
234 [label=<y &le; 2549.5<br/>gini = 0.431<br/>samples = 65624<br/>value = [48498, 430, 1848, 6516, 888, 161, 7283]<br/>class = Computer>, fillcolor="#eda673"] ;
226 -> 234 ;
235 [label=<z &le; 2042.5<br/>gini = 0.315<br/>samples = 57895<br/>value = [47407, 360, 872, 2249, 495, 64, 6448]<br/>class = Computer>, fillcolor="#ea9b61"] ;
234 -> 235 ;
236 [label=<gini = 0.147<br/>samples = 42577<br/>value = [39283, 299, 348, 888, 232, 25, 1502]<br/>class = Computer>, fillcolor="#e78b49"] ;
235 -> 236 ;
237 [label=<gini = 0.605<br/>samples = 15318<br/>value = [8124, 61, 524, 1361, 263, 39, 4946]<br/>class = Computer>, fillcolor="#f7d8c2"] ;
235 -> 237 ;
238 [label=<y &le; 2562.5<br/>gini = 0.645<br/>samples = 7729<br/>value = [1091, 70, 976, 4267, 393, 97, 835]<br/>class = Walking>, fillcolor="#a0f3f1"] ;
234 -> 238 ;
239 [label=<gini = 0.732<br/>samples = 2347<br/>value = [660, 33, 213, 891, 95, 18, 437]<br/>class = Walking>, fillcolor="#e4fbfb"] ;
238 -> 239 ;
240 [label=<gini = 0.571<br/>samples = 5382<br/>value = [431, 37, 763, 3376, 298, 79, 398]<br/>class = Walking>, fillcolor="#8ff0ef"] ;
238 -> 240 ;
}